<?xml version="1.0"?>
<opencv_storage>
<cascade>
  <stageType>BOOST</stageType>
  <featureType>HAAR</featureType>
  <height>20</height>
  <width>20</width>
  <stageParams>
    <boostType>GAB</boostType>
    <minHitRate>9.9500000476837158e-01</minHitRate>
    <maxFalseAlarm>5.0000000000000000e-01</maxFalseAlarm>
    <weightTrimRate>9.4999999999999996e-01</weightTrimRate>
    <maxDepth>1</maxDepth>
    <maxWeakCount>100</maxWeakCount></stageParams>
  <featureParams>
    <maxCatCount>0</maxCatCount>
    <featSize>1</featSize>
    <mode>BASIC</mode></featureParams>
  <stageNum>14</stageNum>
  <stages>
    <!-- stage 0 -->
    <_>
      <maxWeakCount>2</maxWeakCount>
      <stageThreshold>-2.7782618999481201e-01</stageThreshold>
      <weakClassifiers>
        <_>
          <internalNodes>
            0 -1 5 9.3183830380439758e-02</internalNodes>
          <leafValues>
            -8.5765552520751953e-01 8.8988262414932251e-01</leafValues></_>
        <_>
          <internalNodes>
            0 -1 72 -4.8989139031618834e-04</internalNodes>
          <leafValues>
            5.7982933521270752e-01 -8.6991530656814575e-01</leafValues></_></weakClassifiers></_>
    <!-- stage 1 -->
    <_>
      <maxWeakCount>3</maxWeakCount>
      <stageThreshold>2.1703770384192467e-02</stageThreshold>
      <weakClassifiers>
        <_>
          <internalNodes>
            0 -1 34 5.1435079425573349e-02</internalNodes>
          <leafValues>
            -7.0722669363021851e-01 7.9730099439620972e-01</leafValues></_>
        <_>
          <internalNodes>
            0 -1 30 8.2009676843881607e-03</internalNodes>
          <leafValues>
            -9.4985979795455933e-01 4.8205715417861938e-01</leafValues></_>
        <_>
          <internalNodes>
            0 -1 45 5.0895544700324535e-04</internalNodes>
          <leafValues>
            -9.6945917606353760e-01 2.4687330424785614e-01</leafValues></_></weakClassifiers></_>
    <!-- stage 2 -->
    <_>
      <maxWeakCount>6</maxWeakCount>
      <stageThreshold>-1.1807223558425903e+00</stageThreshold>
      <weakClassifiers>
        <_>
          <internalNodes>
            0 -1 16 6.4233969897031784e-03</internalNodes>
          <leafValues>
            -8.2711195945739746e-01 6.1247634887695312e-01</leafValues></_>
        <_>
          <internalNodes>
            0 -1 61 -2.5721533223986626e-02</internalNodes>
          <leafValues>
            4.8934775590896606e-01 -6.9486761093139648e-01</leafValues></_>
        <_>
          <internalNodes>
            0 -1 81 -4.3219304643571377e-04</internalNodes>
          <leafValues>
            3.8716682791709900e-01 -7.3564827442169189e-01</leafValues></_>
        <_>
          <internalNodes>
            0 -1 47 5.2437483100220561e-04</internalNodes>
          <leafValues>
            2.2319644689559937e-01 -8.8738429546356201e-01</leafValues></_>
        <_>
          <internalNodes>
            0 -1 28 3.1240849057212472e-04</internalNodes>
          <leafValues>
            -7.5269544124603271e-01 3.0661216378211975e-01</leafValues></_>
        <_>
          <internalNodes>
            0 -1 25 4.4191317283548415e-04</internalNodes>
          <leafValues>
            2.1808922290802002e-01 -9.5966649055480957e-01</leafValues></_></weakClassifiers></_>
    <!-- stage 3 -->
    <_>
      <maxWeakCount>6</maxWeakCount>
      <stageThreshold>-8.2453185319900513e-01</stageThreshold>
      <weakClassifiers>
        <_>
          <internalNodes>
            0 -1 76 -1.6227195737883449e-03</internalNodes>
          <leafValues>
            6.6210740804672241e-01 -6.6359448432922363e-01</leafValues></_>
        <_>
          <internalNodes>
            0 -1 53 6.1727813445031643e-03</internalNodes>
          <leafValues>
            -5.5323404073715210e-01 5.5073642730712891e-01</leafValues></_>
        <_>
          <internalNodes>
            0 -1 26 -9.2242145910859108e-04</internalNodes>
          <leafValues>
            -9.3366730213165283e-01 2.9954740405082703e-01</leafValues></_>
        <_>
          <internalNodes>
            0 -1 26 7.0390437031164765e-04</internalNodes>
          <leafValues>
            2.6550635695457458e-01 -8.9825582504272461e-01</leafValues></_>
        <_>
          <internalNodes>
            0 -1 57 -1.5339964069426060e-02</internalNodes>
          <leafValues>
            6.4186012744903564e-01 -4.4622549414634705e-01</leafValues></_>
        <_>
          <internalNodes>
            0 -1 70 7.1149331051856279e-04</internalNodes>
          <leafValues>
            2.7346843481063843e-01 -8.4715640544891357e-01</leafValues></_></weakClassifiers></_>
    <!-- stage 4 -->
    <_>
      <maxWeakCount>5</maxWeakCount>
      <stageThreshold>-5.5245715379714966e-01</stageThreshold>
      <weakClassifiers>
        <_>
          <internalNodes>
            0 -1 66 4.7388521488755941e-04</internalNodes>
          <leafValues>
            6.2909990549087524e-01 -6.7029291391372681e-01</leafValues></_>
        <_>
          <internalNodes>
            0 -1 46 4.0011297096498311e-04</internalNodes>
          <leafValues>
            3.9886081218719482e-01 -7.2117209434509277e-01</leafValues></_>
        <_>
          <internalNodes>
            0 -1 23 1.6255951777566224e-04</internalNodes>
          <leafValues>
            -7.5374591350555420e-01 3.8381731510162354e-01</leafValues></_>
        <_>
          <internalNodes>
            0 -1 8 -7.0760224480181932e-04</internalNodes>
          <leafValues>
            2.4308723211288452e-01 -9.5785814523696899e-01</leafValues></_>
        <_>
          <internalNodes>
            0 -1 80 -4.2594107799232006e-04</internalNodes>
          <leafValues>
            2.2963362932205200e-01 -8.1488949060440063e-01</leafValues></_></weakClassifiers></_>
    <!-- stage 5 -->
    <_>
      <maxWeakCount>6</maxWeakCount>
      <stageThreshold>-1.0743052959442139e+00</stageThreshold>
      <weakClassifiers>
        <_>
          <internalNodes>
            0 -1 51 5.6052953004837036e-04</internalNodes>
          <leafValues>
            -5.5990958213806152e-01 6.3548302650451660e-01</leafValues></_>
        <_>
          <internalNodes>
            0 -1 71 -6.0453586047515273e-04</internalNodes>
          <leafValues>
            3.2032677531242371e-01 -8.9506566524505615e-01</leafValues></_>
        <_>
          <internalNodes>
            0 -1 17 1.4691182877868414e-04</internalNodes>
          <leafValues>
            -7.3934775590896606e-01 3.2215636968612671e-01</leafValues></_>
        <_>
          <internalNodes>
            0 -1 37 -3.6484358133748174e-04</internalNodes>
          <leafValues>
            -9.3950229883193970e-01 1.8771396577358246e-01</leafValues></_>
        <_>
          <internalNodes>
            0 -1 44 1.3312083669006824e-02</internalNodes>
          <leafValues>
            -4.8517820239067078e-01 4.1017511487007141e-01</leafValues></_>
        <_>
          <internalNodes>
            0 -1 37 3.8075330667197704e-04</internalNodes>
          <leafValues>
            2.0208950340747833e-01 -9.3124502897262573e-01</leafValues></_></weakClassifiers></_>
    <!-- stage 6 -->
    <_>
      <maxWeakCount>7</maxWeakCount>
      <stageThreshold>-1.0135710239410400e+00</stageThreshold>
      <weakClassifiers>
        <_>
          <internalNodes>
            0 -1 7 2.9035501647740602e-03</internalNodes>
          <leafValues>
            5.3234708309173584e-01 -9.1678225994110107e-01</leafValues></_>
        <_>
          <internalNodes>
            0 -1 3 -2.4922592565417290e-02</internalNodes>
          <leafValues>
            -8.9338028430938721e-01 3.1189852952957153e-01</leafValues></_>
        <_>
          <internalNodes>
            0 -1 50 1.4949016273021698e-02</internalNodes>
          <leafValues>
            -4.7422811388969421e-01 4.9515265226364136e-01</leafValues></_>
        <_>
          <internalNodes>
            0 -1 77 1.4213438844308257e-03</internalNodes>
          <leafValues>
            2.7831324934959412e-01 -8.2215720415115356e-01</leafValues></_>
        <_>
          <internalNodes>
            0 -1 32 5.3190793842077255e-03</internalNodes>
          <leafValues>
            1.9013458490371704e-01 -9.5511800050735474e-01</leafValues></_>
        <_>
          <internalNodes>
            0 -1 65 2.9796053422614932e-04</internalNodes>
          <leafValues>
            2.4427162110805511e-01 -7.0384097099304199e-01</leafValues></_>
        <_>
          <internalNodes>
            0 -1 43 1.4992666547186673e-04</internalNodes>
          <leafValues>
            -8.9102911949157715e-01 2.2399486601352692e-01</leafValues></_></weakClassifiers></_>
    <!-- stage 7 -->
    <_>
      <maxWeakCount>8</maxWeakCount>
      <stageThreshold>-9.9893516302108765e-01</stageThreshold>
      <weakClassifiers>
        <_>
          <internalNodes>
            0 -1 27 -4.2495457455515862e-04</internalNodes>
          <leafValues>
            -6.6934764385223389e-01 6.0493826866149902e-01</leafValues></_>
        <_>
          <internalNodes>
            0 -1 84 -3.3805286511778831e-04</internalNodes>
          <leafValues>
            3.9264714717864990e-01 -5.9471678733825684e-01</leafValues></_>
        <_>
          <internalNodes>
            0 -1 41 6.3502078410238028e-04</internalNodes>
          <leafValues>
            -8.8260513544082642e-01 2.4904271960258484e-01</leafValues></_>
        <_>
          <internalNodes>
            0 -1 15 -6.0791112482547760e-03</internalNodes>
          <leafValues>
            3.1054410338401794e-01 -5.9836477041244507e-01</leafValues></_>
        <_>
          <internalNodes>
            0 -1 48 1.2495846021920443e-04</internalNodes>
          <leafValues>
            2.5742110610008240e-01 -8.0738800764083862e-01</leafValues></_>
        <_>
          <internalNodes>
            0 -1 59 -4.7986041754484177e-03</internalNodes>
          <leafValues>
            6.2397354841232300e-01 -3.4407374262809753e-01</leafValues></_>
        <_>
          <internalNodes>
            0 -1 39 -5.3342329338192940e-03</internalNodes>
          <leafValues>
            5.8548980951309204e-01 -4.0324357151985168e-01</leafValues></_>
        <_>
          <internalNodes>
            0 -1 36 1.8725130939856172e-04</internalNodes>
          <leafValues>
            -8.8970601558685303e-01 2.7151438593864441e-01</leafValues></_></weakClassifiers></_>
    <!-- stage 8 -->
    <_>
      <maxWeakCount>8</maxWeakCount>
      <stageThreshold>-8.5668021440505981e-01</stageThreshold>
      <weakClassifiers>
        <_>
          <internalNodes>
            0 -1 4 7.0462236180901527e-03</internalNodes>
          <leafValues>
            -8.3206105232238770e-01 5.3853046894073486e-01</leafValues></_>
        <_>
          <internalNodes>
            0 -1 14 3.8234196603298187e-02</internalNodes>
          <leafValues>
            2.6313701272010803e-01 -8.8847643136978149e-01</leafValues></_>
        <_>
          <internalNodes>
            0 -1 52 -2.2761564701795578e-02</internalNodes>
          <leafValues>
            6.1255097389221191e-01 -3.6596980690956116e-01</leafValues></_>
        <_>
          <internalNodes>
            0 -1 33 6.0150562785565853e-04</internalNodes>
          <leafValues>
            2.4824619293212891e-01 -8.8722282648086548e-01</leafValues></_>
        <_>
          <internalNodes>
            0 -1 67 3.2069670851342380e-04</internalNodes>
          <leafValues>
            2.3194500803947449e-01 -6.9845747947692871e-01</leafValues></_>
        <_>
          <internalNodes>
            0 -1 79 -5.9935846365988255e-04</internalNodes>
          <leafValues>
            2.3188440501689911e-01 -7.5527161359786987e-01</leafValues></_>
        <_>
          <internalNodes>
            0 -1 73 4.3868465581908822e-04</internalNodes>
          <leafValues>
            2.0935128629207611e-01 -8.7602013349533081e-01</leafValues></_>
        <_>
          <internalNodes>
            0 -1 35 -3.1144637614488602e-03</internalNodes>
          <leafValues>
            1.4394277334213257e-01 -8.7926018238067627e-01</leafValues></_></weakClassifiers></_>
    <!-- stage 9 -->
    <_>
      <maxWeakCount>7</maxWeakCount>
      <stageThreshold>-5.8239018917083740e-01</stageThreshold>
      <weakClassifiers>
        <_>
          <internalNodes>
            0 -1 9 -8.8417821098119020e-04</internalNodes>
          <leafValues>
            -8.2739728689193726e-01 5.2079647779464722e-01</leafValues></_>
        <_>
          <internalNodes>
            0 -1 56 4.9119228497147560e-03</internalNodes>
          <leafValues>
            -5.7179695367813110e-01 3.8472849130630493e-01</leafValues></_>
        <_>
          <internalNodes>
            0 -1 12 1.1672695167362690e-02</internalNodes>
          <leafValues>
            -8.6366474628448486e-01 2.3940934240818024e-01</leafValues></_>
        <_>
          <internalNodes>
            0 -1 74 -8.2349625881761312e-04</internalNodes>
          <leafValues>
            2.1805618703365326e-01 -7.5068289041519165e-01</leafValues></_>
        <_>
          <internalNodes>
            0 -1 54 7.2187986224889755e-03</internalNodes>
          <leafValues>
            -8.8026416301727295e-01 1.5631127357482910e-01</leafValues></_>
        <_>
          <internalNodes>
            0 -1 21 8.0994237214326859e-04</internalNodes>
          <leafValues>
            1.6171689331531525e-01 -8.7054556608200073e-01</leafValues></_>
        <_>
          <internalNodes>
            0 -1 49 3.7649320438504219e-04</internalNodes>
          <leafValues>
            -9.1293096542358398e-01 1.2136031687259674e-01</leafValues></_></weakClassifiers></_>
    <!-- stage 10 -->
    <_>
      <maxWeakCount>7</maxWeakCount>
      <stageThreshold>-5.6320071220397949e-01</stageThreshold>
      <weakClassifiers>
        <_>
          <internalNodes>
            0 -1 38 3.4653171896934509e-03</internalNodes>
          <leafValues>
            5.2218735218048096e-01 -7.3604059219360352e-01</leafValues></_>
        <_>
          <internalNodes>
            0 -1 24 4.1298294672742486e-04</internalNodes>
          <leafValues>
            -7.7391552925109863e-01 2.8056675195693970e-01</leafValues></_>
        <_>
          <internalNodes>
            0 -1 29 7.6635670848190784e-03</internalNodes>
          <leafValues>
            -4.2685776948928833e-01 4.7747534513473511e-01</leafValues></_>
        <_>
          <internalNodes>
            0 -1 20 3.7406705087050796e-04</internalNodes>
          <leafValues>
            2.2379481792449951e-01 -9.1075652837753296e-01</leafValues></_>
        <_>
          <internalNodes>
            0 -1 22 2.4557765573263168e-04</internalNodes>
          <leafValues>
            -8.4835821390151978e-01 1.7100864648818970e-01</leafValues></_>
        <_>
          <internalNodes>
            0 -1 68 8.5816218052059412e-04</internalNodes>
          <leafValues>
            2.1553319692611694e-01 -6.9180154800415039e-01</leafValues></_>
        <_>
          <internalNodes>
            0 -1 60 -9.0636406093835831e-04</internalNodes>
          <leafValues>
            6.5621387958526611e-01 -2.9120576381683350e-01</leafValues></_></weakClassifiers></_>
    <!-- stage 11 -->
    <_>
      <maxWeakCount>7</maxWeakCount>
      <stageThreshold>-9.2593091726303101e-01</stageThreshold>
      <weakClassifiers>
        <_>
          <internalNodes>
            0 -1 82 -8.9957407908514142e-04</internalNodes>
          <leafValues>
            5.5465781688690186e-01 -5.6046062707901001e-01</leafValues></_>
        <_>
          <internalNodes>
            0 -1 55 8.8451406918466091e-04</internalNodes>
          <leafValues>
            -5.1021516323089600e-01 3.7773171067237854e-01</leafValues></_>
        <_>
          <internalNodes>
            0 -1 75 3.4124143421649933e-03</internalNodes>
          <leafValues>
            2.5746515393257141e-01 -8.6061745882034302e-01</leafValues></_>
        <_>
          <internalNodes>
            0 -1 69 -5.3801818285137415e-04</internalNodes>
          <leafValues>
            2.2369268536567688e-01 -6.4685350656509399e-01</leafValues></_>
        <_>
          <internalNodes>
            0 -1 13 1.8715205369517207e-03</internalNodes>
          <leafValues>
            -4.1245299577713013e-01 4.0061837434768677e-01</leafValues></_>
        <_>
          <internalNodes>
            0 -1 42 -2.9968367889523506e-03</internalNodes>
          <leafValues>
            5.4452270269393921e-01 -3.1050437688827515e-01</leafValues></_>
        <_>
          <internalNodes>
            0 -1 63 -6.9328496465459466e-05</internalNodes>
          <leafValues>
            6.5486222505569458e-01 -4.9843823909759521e-01</leafValues></_></weakClassifiers></_>
    <!-- stage 12 -->
    <_>
      <maxWeakCount>9</maxWeakCount>
      <stageThreshold>-8.8659578561782837e-01</stageThreshold>
      <weakClassifiers>
        <_>
          <internalNodes>
            0 -1 19 -8.2493678200989962e-04</internalNodes>
          <leafValues>
            -5.8179849386215210e-01 5.2854174375534058e-01</leafValues></_>
        <_>
          <internalNodes>
            0 -1 40 2.7016358217224479e-04</internalNodes>
          <leafValues>
            -8.5761642456054688e-01 2.4930725991725922e-01</leafValues></_>
        <_>
          <internalNodes>
            0 -1 39 -6.0921888798475266e-03</internalNodes>
          <leafValues>
            5.2570831775665283e-01 -3.6318889260292053e-01</leafValues></_>
        <_>
          <internalNodes>
            0 -1 62 -1.4346779789775610e-03</internalNodes>
          <leafValues>
            5.9044164419174194e-01 -3.5248249769210815e-01</leafValues></_>
        <_>
          <internalNodes>
            0 -1 2 5.2178945392370224e-02</internalNodes>
          <leafValues>
            2.0287314057350159e-01 -8.8649189472198486e-01</leafValues></_>
        <_>
          <internalNodes>
            0 -1 0 -9.9351664539426565e-04</internalNodes>
          <leafValues>
            4.2087671160697937e-01 -4.1219267249107361e-01</leafValues></_>
        <_>
          <internalNodes>
            0 -1 18 1.4170416397973895e-04</internalNodes>
          <leafValues>
            2.0496664941310883e-01 -8.2449883222579956e-01</leafValues></_>
        <_>
          <internalNodes>
            0 -1 83 -6.0608971398323774e-04</internalNodes>
          <leafValues>
            3.0875271558761597e-01 -5.1480531692504883e-01</leafValues></_>
        <_>
          <internalNodes>
            0 -1 64 -1.4910743338987231e-03</internalNodes>
          <leafValues>
            1.7535850405693054e-01 -7.5787591934204102e-01</leafValues></_></weakClassifiers></_>
    <!-- stage 13 -->
    <_>
      <maxWeakCount>7</maxWeakCount>
      <stageThreshold>-4.9071335792541504e-01</stageThreshold>
      <weakClassifiers>
        <_>
          <internalNodes>
            0 -1 31 8.4786899387836456e-03</internalNodes>
          <leafValues>
            5.3518515825271606e-01 -6.0430109500885010e-01</leafValues></_>
        <_>
          <internalNodes>
            0 -1 11 3.7080492824316025e-02</internalNodes>
          <leafValues>
            -7.5545370578765869e-01 2.6690268516540527e-01</leafValues></_>
        <_>
          <internalNodes>
            0 -1 6 -4.5260313898324966e-02</internalNodes>
          <leafValues>
            -8.7699431180953979e-01 1.7063143849372864e-01</leafValues></_>
        <_>
          <internalNodes>
            0 -1 1 -6.9535197690129280e-04</internalNodes>
          <leafValues>
            2.7570888400077820e-01 -6.2892663478851318e-01</leafValues></_>
        <_>
          <internalNodes>
            0 -1 10 -2.8804834932088852e-02</internalNodes>
          <leafValues>
            5.2133482694625854e-01 -3.3090439438819885e-01</leafValues></_>
        <_>
          <internalNodes>
            0 -1 78 -6.0259498422965407e-04</internalNodes>
          <leafValues>
            2.2752174735069275e-01 -6.9245266914367676e-01</leafValues></_>
        <_>
          <internalNodes>
            0 -1 58 -2.1353135816752911e-03</internalNodes>
          <leafValues>
            6.0374939441680908e-01 -3.0213558673858643e-01</leafValues></_></weakClassifiers></_></stages>
  <features>
    <_>
      <rects>
        <_>
          3 9 3 2 -1.</_>
        <_>
          4 9 1 2 3.</_></rects>
      <tilted>0</tilted></_>
    <_>
      <rects>
        <_>
          3 9 6 1 -1.</_>
        <_>
          5 9 2 1 3.</_></rects>
      <tilted>0</tilted></_>
    <_>
      <rects>
        <_>
          4 12 10 3 -1.</_>
        <_>
          9 12 5 3 2.</_></rects>
      <tilted>0</tilted></_>
    <_>
      <rects>
        <_>
          5 4 10 12 -1.</_>
        <_>
          5 10 10 6 2.</_></rects>
      <tilted>0</tilted></_>
    <_>
      <rects>
        <_>
          5 5 10 6 -1.</_>
        <_>
          5 8 10 3 2.</_></rects>
      <tilted>0</tilted></_>
    <_>
      <rects>
        <_>
          5 6 12 8 -1.</_>
        <_>
          9 6 4 8 3.</_></rects>
      <tilted>0</tilted></_>
    <_>
      <rects>
        <_>
          5 6 11 10 -1.</_>
        <_>
          5 11 11 5 2.</_></rects>
      <tilted>0</tilted></_>
    <_>
      <rects>
        <_>
          5 7 10 10 -1.</_>
        <_>
          5 12 10 5 2.</_></rects>
      <tilted>0</tilted></_>
    <_>
      <rects>
        <_>
          5 9 6 2 -1.</_>
        <_>
          7 9 2 2 3.</_></rects>
      <tilted>0</tilted></_>
    <_>
      <rects>
        <_>
          5 9 4 2 -1.</_>
        <_>
          5 10 4 1 2.</_></rects>
      <tilted>0</tilted></_>
    <_>
      <rects>
        <_>
          5 16 8 4 -1.</_>
        <_>
          5 18 8 2 2.</_></rects>
      <tilted>0</tilted></_>
    <_>
      <rects>
        <_>
          6 3 7 15 -1.</_>
        <_>
          6 8 7 5 3.</_></rects>
      <tilted>0</tilted></_>
    <_>
      <rects>
        <_>
          6 3 8 6 -1.</_>
        <_>
          6 6 8 3 2.</_></rects>
      <tilted>0</tilted></_>
    <_>
      <rects>
        <_>
          6 4 6 3 -1.</_>
        <_>
          6 5 6 1 3.</_></rects>
      <tilted>0</tilted></_>
    <_>
      <rects>
        <_>
          6 5 9 6 -1.</_>
        <_>
          6 8 9 3 2.</_></rects>
      <tilted>0</tilted></_>
    <_>
      <rects>
        <_>
          6 7 6 5 -1.</_>
        <_>
          8 7 2 5 3.</_></rects>
      <tilted>0</tilted></_>
    <_>
      <rects>
        <_>
          6 7 9 6 -1.</_>
        <_>
          6 9 9 2 3.</_></rects>
      <tilted>0</tilted></_>
    <_>
      <rects>
        <_>
          6 9 2 1 -1.</_>
        <_>
          7 9 1 1 2.</_></rects>
      <tilted>0</tilted></_>
    <_>
      <rects>
        <_>
          6 9 3 1 -1.</_>
        <_>
          7 9 1 1 3.</_></rects>
      <tilted>0</tilted></_>
    <_>
      <rects>
        <_>
          6 9 3 2 -1.</_>
        <_>
          7 9 1 2 3.</_></rects>
      <tilted>0</tilted></_>
    <_>
      <rects>
        <_>
          6 9 3 4 -1.</_>
        <_>
          7 9 1 4 3.</_></rects>
      <tilted>0</tilted></_>
    <_>
      <rects>
        <_>
          6 9 3 3 -1.</_>
        <_>
          6 10 3 1 3.</_></rects>
      <tilted>0</tilted></_>
    <_>
      <rects>
        <_>
          6 9 9 3 -1.</_>
        <_>
          6 10 9 1 3.</_></rects>
      <tilted>0</tilted></_>
    <_>
      <rects>
        <_>
          6 10 2 1 -1.</_>
        <_>
          7 10 1 1 2.</_></rects>
      <tilted>0</tilted></_>
    <_>
      <rects>
        <_>
          6 10 2 2 -1.</_>
        <_>
          7 10 1 2 2.</_></rects>
      <tilted>0</tilted></_>
    <_>
      <rects>
        <_>
          6 10 3 2 -1.</_>
        <_>
          7 10 1 2 3.</_></rects>
      <tilted>0</tilted></_>
    <_>
      <rects>
        <_>
          6 10 3 3 -1.</_>
        <_>
          6 11 3 1 3.</_></rects>
      <tilted>0</tilted></_>
    <_>
      <rects>
        <_>
          6 11 3 1 -1.</_>
        <_>
          7 11 1 1 3.</_></rects>
      <tilted>0</tilted></_>
    <_>
      <rects>
        <_>
          6 11 2 2 -1.</_>
        <_>
          7 11 1 2 2.</_></rects>
      <tilted>0</tilted></_>
    <_>
      <rects>
        <_>
          7 2 6 6 -1.</_>
        <_>
          7 4 6 2 3.</_></rects>
      <tilted>0</tilted></_>
    <_>
      <rects>
        <_>
          7 4 7 6 -1.</_>
        <_>
          7 7 7 3 2.</_></rects>
      <tilted>0</tilted></_>
    <_>
      <rects>
        <_>
          7 5 3 12 -1.</_>
        <_>
          7 9 3 4 3.</_></rects>
      <tilted>0</tilted></_>
    <_>
      <rects>
        <_>
          7 6 2 9 -1.</_>
        <_>
          7 9 2 3 3.</_></rects>
      <tilted>0</tilted></_>
    <_>
      <rects>
        <_>
          7 8 3 4 -1.</_>
        <_>
          8 8 1 4 3.</_></rects>
      <tilted>0</tilted></_>
    <_>
      <rects>
        <_>
          7 8 9 5 -1.</_>
        <_>
          10 8 3 5 3.</_></rects>
      <tilted>0</tilted></_>
    <_>
      <rects>
        <_>
          7 8 8 8 -1.</_>
        <_>
          7 12 8 4 2.</_></rects>
      <tilted>0</tilted></_>
    <_>
      <rects>
        <_>
          7 9 2 1 -1.</_>
        <_>
          8 9 1 1 2.</_></rects>
      <tilted>0</tilted></_>
    <_>
      <rects>
        <_>
          7 9 1 2 -1.</_>
        <_>
          7 10 1 1 2.</_></rects>
      <tilted>0</tilted></_>
    <_>
      <rects>
        <_>
          7 9 2 4 -1.</_>
        <_>
          8 9 1 4 2.</_></rects>
      <tilted>0</tilted></_>
    <_>
      <rects>
        <_>
          7 9 6 2 -1.</_>
        <_>
          9 9 2 2 3.</_></rects>
      <tilted>0</tilted></_>
    <_>
      <rects>
        <_>
          7 10 2 1 -1.</_>
        <_>
          8 10 1 1 2.</_></rects>
      <tilted>0</tilted></_>
    <_>
      <rects>
        <_>
          7 10 2 3 -1.</_>
        <_>
          8 10 1 3 2.</_></rects>
      <tilted>0</tilted></_>
    <_>
      <rects>
        <_>
          7 10 6 1 -1.</_>
        <_>
          9 10 2 1 3.</_></rects>
      <tilted>0</tilted></_>
    <_>
      <rects>
        <_>
          7 11 2 1 -1.</_>
        <_>
          8 11 1 1 2.</_></rects>
      <tilted>0</tilted></_>
    <_>
      <rects>
        <_>
          8 2 6 4 -1.</_>
        <_>
          8 4 6 2 2.</_></rects>
      <tilted>0</tilted></_>
    <_>
      <rects>
        <_>
          8 9 2 2 -1.</_>
        <_>
          9 9 1 2 2.</_></rects>
      <tilted>0</tilted></_>
    <_>
      <rects>
        <_>
          8 9 3 2 -1.</_>
        <_>
          9 9 1 2 3.</_></rects>
      <tilted>0</tilted></_>
    <_>
      <rects>
        <_>
          8 9 1 6 -1.</_>
        <_>
          8 11 1 2 3.</_></rects>
      <tilted>0</tilted></_>
    <_>
      <rects>
        <_>
          8 10 2 6 -1.</_>
        <_>
          8 12 2 2 3.</_></rects>
      <tilted>0</tilted></_>
    <_>
      <rects>
        <_>
          8 11 2 2 -1.</_>
        <_>
          9 11 1 2 2.</_></rects>
      <tilted>0</tilted></_>
    <_>
      <rects>
        <_>
          8 13 5 6 -1.</_>
        <_>
          8 15 5 2 3.</_></rects>
      <tilted>0</tilted></_>
    <_>
      <rects>
        <_>
          8 14 6 3 -1.</_>
        <_>
          8 15 6 1 3.</_></rects>
      <tilted>0</tilted></_>
    <_>
      <rects>
        <_>
          8 16 5 4 -1.</_>
        <_>
          8 18 5 2 2.</_></rects>
      <tilted>0</tilted></_>
    <_>
      <rects>
        <_>
          9 2 3 4 -1.</_>
        <_>
          9 4 3 2 2.</_></rects>
      <tilted>0</tilted></_>
    <_>
      <rects>
        <_>
          9 7 5 6 -1.</_>
        <_>
          9 9 5 2 3.</_></rects>
      <tilted>0</tilted></_>
    <_>
      <rects>
        <_>
          9 10 4 3 -1.</_>
        <_>
          9 11 4 1 3.</_></rects>
      <tilted>0</tilted></_>
    <_>
      <rects>
        <_>
          9 13 4 6 -1.</_>
        <_>
          9 15 4 2 3.</_></rects>
      <tilted>0</tilted></_>
    <_>
      <rects>
        <_>
          9 16 5 4 -1.</_>
        <_>
          9 18 5 2 2.</_></rects>
      <tilted>0</tilted></_>
    <_>
      <rects>
        <_>
          10 9 3 2 -1.</_>
        <_>
          11 9 1 2 3.</_></rects>
      <tilted>0</tilted></_>
    <_>
      <rects>
        <_>
          10 9 6 2 -1.</_>
        <_>
          12 9 2 2 3.</_></rects>
      <tilted>0</tilted></_>
    <_>
      <rects>
        <_>
          10 10 3 1 -1.</_>
        <_>
          11 10 1 1 3.</_></rects>
      <tilted>0</tilted></_>
    <_>
      <rects>
        <_>
          11 4 4 8 -1.</_>
        <_>
          13 4 2 8 2.</_></rects>
      <tilted>0</tilted></_>
    <_>
      <rects>
        <_>
          11 8 3 4 -1.</_>
        <_>
          12 8 1 4 3.</_></rects>
      <tilted>0</tilted></_>
    <_>
      <rects>
        <_>
          11 9 3 3 -1.</_>
        <_>
          12 9 1 3 3.</_></rects>
      <tilted>0</tilted></_>
    <_>
      <rects>
        <_>
          12 6 2 3 -1.</_>
        <_>
          13 6 1 3 2.</_></rects>
      <tilted>0</tilted></_>
    <_>
      <rects>
        <_>
          12 7 3 3 -1.</_>
        <_>
          13 7 1 3 3.</_></rects>
      <tilted>0</tilted></_>
    <_>
      <rects>
        <_>
          12 9 3 2 -1.</_>
        <_>
          13 9 1 2 3.</_></rects>
      <tilted>0</tilted></_>
    <_>
      <rects>
        <_>
          12 9 3 3 -1.</_>
        <_>
          13 9 1 3 3.</_></rects>
      <tilted>0</tilted></_>
    <_>
      <rects>
        <_>
          12 10 3 3 -1.</_>
        <_>
          13 10 1 3 3.</_></rects>
      <tilted>0</tilted></_>
    <_>
      <rects>
        <_>
          13 6 2 1 -1.</_>
        <_>
          14 6 1 1 2.</_></rects>
      <tilted>0</tilted></_>
    <_>
      <rects>
        <_>
          13 8 3 2 -1.</_>
        <_>
          14 8 1 2 3.</_></rects>
      <tilted>0</tilted></_>
    <_>
      <rects>
        <_>
          13 9 2 1 -1.</_>
        <_>
          14 9 1 1 2.</_></rects>
      <tilted>0</tilted></_>
    <_>
      <rects>
        <_>
          13 10 2 1 -1.</_>
        <_>
          14 10 1 1 2.</_></rects>
      <tilted>0</tilted></_>
    <_>
      <rects>
        <_>
          13 10 3 1 -1.</_>
        <_>
          14 10 1 1 3.</_></rects>
      <tilted>0</tilted></_>
    <_>
      <rects>
        <_>
          13 12 2 2 -1.</_>
        <_>
          14 12 1 2 2.</_></rects>
      <tilted>0</tilted></_>
    <_>
      <rects>
        <_>
          14 6 1 9 -1.</_>
        <_>
          14 9 1 3 3.</_></rects>
      <tilted>0</tilted></_>
    <_>
      <rects>
        <_>
          14 7 2 3 -1.</_>
        <_>
          15 7 1 3 2.</_></rects>
      <tilted>0</tilted></_>
    <_>
      <rects>
        <_>
          14 8 1 6 -1.</_>
        <_>
          14 10 1 2 3.</_></rects>
      <tilted>0</tilted></_>
    <_>
      <rects>
        <_>
          14 9 2 1 -1.</_>
        <_>
          15 9 1 1 2.</_></rects>
      <tilted>0</tilted></_>
    <_>
      <rects>
        <_>
          14 10 2 1 -1.</_>
        <_>
          15 10 1 1 2.</_></rects>
      <tilted>0</tilted></_>
    <_>
      <rects>
        <_>
          14 11 2 1 -1.</_>
        <_>
          15 11 1 1 2.</_></rects>
      <tilted>0</tilted></_>
    <_>
      <rects>
        <_>
          14 12 2 1 -1.</_>
        <_>
          15 12 1 1 2.</_></rects>
      <tilted>0</tilted></_>
    <_>
      <rects>
        <_>
          14 12 2 2 -1.</_>
        <_>
          15 12 1 2 2.</_></rects>
      <tilted>0</tilted></_>
    <_>
      <rects>
        <_>
          15 9 2 1 -1.</_>
        <_>
          16 9 1 1 2.</_></rects>
      <tilted>0</tilted></_>
    <_>
      <rects>
        <_>
          15 11 2 1 -1.</_>
        <_>
          16 11 1 1 2.</_></rects>
      <tilted>0</tilted></_></features></cascade>
</opencv_storage>
