<?xml version="1.0"?>
<opencv_storage>
<stage11>
  <maxWeakCount>7</maxWeakCount>
  <stageThreshold>-9.2593091726303101e-01</stageThreshold>
  <weakClassifiers>
    <_>
      <internalNodes>
        0 -1 73152 -8.9957407908514142e-04</internalNodes>
      <leafValues>
        5.5465781688690186e-01 -5.6046062707901001e-01</leafValues></_>
    <_>
      <internalNodes>
        0 -1 57691 8.8451406918466091e-04</internalNodes>
      <leafValues>
        -5.1021516323089600e-01 3.7773171067237854e-01</leafValues></_>
    <_>
      <internalNodes>
        0 -1 72392 3.4124143421649933e-03</internalNodes>
      <leafValues>
        2.5746515393257141e-01 -8.6061745882034302e-01</leafValues></_>
    <_>
      <internalNodes>
        0 -1 69972 -5.3801818285137415e-04</internalNodes>
      <leafValues>
        2.2369268536567688e-01 -6.4685350656509399e-01</leafValues></_>
    <_>
      <internalNodes>
        0 -1 41998 1.8715205369517207e-03</internalNodes>
      <leafValues>
        -4.1245299577713013e-01 4.0061837434768677e-01</leafValues></_>
    <_>
      <internalNodes>
        0 -1 48781 -2.9968367889523506e-03</internalNodes>
      <leafValues>
        5.4452270269393921e-01 -3.1050437688827515e-01</leafValues></_>
    <_>
      <internalNodes>
        0 -1 64740 -6.9328496465459466e-05</internalNodes>
      <leafValues>
        6.5486222505569458e-01 -4.9843823909759521e-01</leafValues></_></weakClassifiers></stage11>
</opencv_storage>
