<?xml version="1.0"?>
<opencv_storage>
<stage6>
  <maxWeakCount>7</maxWeakCount>
  <stageThreshold>-1.0135710239410400e+00</stageThreshold>
  <weakClassifiers>
    <_>
      <internalNodes>
        0 -1 37745 2.9035501647740602e-03</internalNodes>
      <leafValues>
        5.3234708309173584e-01 -9.1678225994110107e-01</leafValues></_>
    <_>
      <internalNodes>
        0 -1 36590 -2.4922592565417290e-02</internalNodes>
      <leafValues>
        -8.9338028430938721e-01 3.1189852952957153e-01</leafValues></_>
    <_>
      <internalNodes>
        0 -1 54136 1.4949016273021698e-02</internalNodes>
      <leafValues>
        -4.7422811388969421e-01 4.9515265226364136e-01</leafValues></_>
    <_>
      <internalNodes>
        0 -1 72687 1.4213438844308257e-03</internalNodes>
      <leafValues>
        2.7831324934959412e-01 -8.2215720415115356e-01</leafValues></_>
    <_>
      <internalNodes>
        0 -1 47654 5.3190793842077255e-03</internalNodes>
      <leafValues>
        1.9013458490371704e-01 -9.5511800050735474e-01</leafValues></_>
    <_>
      <internalNodes>
        0 -1 67460 2.9796053422614932e-04</internalNodes>
      <leafValues>
        2.4427162110805511e-01 -7.0384097099304199e-01</leafValues></_>
    <_>
      <internalNodes>
        0 -1 48980 1.4992666547186673e-04</internalNodes>
      <leafValues>
        -8.9102911949157715e-01 2.2399486601352692e-01</leafValues></_></weakClassifiers></stage6>
</opencv_storage>
