<?xml version="1.0"?>
<opencv_storage>
<stage9>
  <maxWeakCount>7</maxWeakCount>
  <stageThreshold>-5.8239018917083740e-01</stageThreshold>
  <weakClassifiers>
    <_>
      <internalNodes>
        0 -1 38239 -8.8417821098119020e-04</internalNodes>
      <leafValues>
        -8.2739728689193726e-01 5.2079647779464722e-01</leafValues></_>
    <_>
      <internalNodes>
        0 -1 58174 4.9119228497147560e-03</internalNodes>
      <leafValues>
        -5.7179695367813110e-01 3.8472849130630493e-01</leafValues></_>
    <_>
      <internalNodes>
        0 -1 41660 1.1672695167362690e-02</internalNodes>
      <leafValues>
        -8.6366474628448486e-01 2.3940934240818024e-01</leafValues></_>
    <_>
      <internalNodes>
        0 -1 70799 -8.2349625881761312e-04</internalNodes>
      <leafValues>
        2.1805618703365326e-01 -7.5068289041519165e-01</leafValues></_>
    <_>
      <internalNodes>
        0 -1 57070 7.2187986224889755e-03</internalNodes>
      <leafValues>
        -8.8026416301727295e-01 1.5631127357482910e-01</leafValues></_>
    <_>
      <internalNodes>
        0 -1 43612 8.0994237214326859e-04</internalNodes>
      <leafValues>
        1.6171689331531525e-01 -8.7054556608200073e-01</leafValues></_>
    <_>
      <internalNodes>
        0 -1 53673 3.7649320438504219e-04</internalNodes>
      <leafValues>
        -9.1293096542358398e-01 1.2136031687259674e-01</leafValues></_></weakClassifiers></stage9>
</opencv_storage>
