<?xml version="1.0"?>
<opencv_storage>
<stage2>
  <maxWeakCount>6</maxWeakCount>
  <stageThreshold>-1.1807223558425903e+00</stageThreshold>
  <weakClassifiers>
    <_>
      <internalNodes>
        0 -1 43168 6.4233969897031784e-03</internalNodes>
      <leafValues>
        -8.2711195945739746e-01 6.1247634887695312e-01</leafValues></_>
    <_>
      <internalNodes>
        0 -1 63684 -2.5721533223986626e-02</internalNodes>
      <leafValues>
        4.8934775590896606e-01 -6.9486761093139648e-01</leafValues></_>
    <_>
      <internalNodes>
        0 -1 73147 -4.3219304643571377e-04</internalNodes>
      <leafValues>
        3.8716682791709900e-01 -7.3564827442169189e-01</leafValues></_>
    <_>
      <internalNodes>
        0 -1 53214 5.2437483100220561e-04</internalNodes>
      <leafValues>
        2.2319644689559937e-01 -8.8738429546356201e-01</leafValues></_>
    <_>
      <internalNodes>
        0 -1 44069 3.1240849057212472e-04</internalNodes>
      <leafValues>
        -7.5269544124603271e-01 3.0661216378211975e-01</leafValues></_>
    <_>
      <internalNodes>
        0 -1 43814 4.4191317283548415e-04</internalNodes>
      <leafValues>
        2.1808922290802002e-01 -9.5966649055480957e-01</leafValues></_></weakClassifiers></stage2>
</opencv_storage>
