<?xml version="1.0"?>
<opencv_storage>
<stage5>
  <maxWeakCount>6</maxWeakCount>
  <stageThreshold>-1.0743052959442139e+00</stageThreshold>
  <weakClassifiers>
    <_>
      <internalNodes>
        0 -1 54286 5.6052953004837036e-04</internalNodes>
      <leafValues>
        -5.5990958213806152e-01 6.3548302650451660e-01</leafValues></_>
    <_>
      <internalNodes>
        0 -1 70441 -6.0453586047515273e-04</internalNodes>
      <leafValues>
        3.2032677531242371e-01 -8.9506566524505615e-01</leafValues></_>
    <_>
      <internalNodes>
        0 -1 43539 1.4691182877868414e-04</internalNodes>
      <leafValues>
        -7.3934775590896606e-01 3.2215636968612671e-01</leafValues></_>
    <_>
      <internalNodes>
        0 -1 48503 -3.6484358133748174e-04</internalNodes>
      <leafValues>
        -9.3950229883193970e-01 1.8771396577358246e-01</leafValues></_>
    <_>
      <internalNodes>
        0 -1 51129 1.3312083669006824e-02</internalNodes>
      <leafValues>
        -4.8517820239067078e-01 4.1017511487007141e-01</leafValues></_>
    <_>
      <internalNodes>
        0 -1 48503 3.8075330667197704e-04</internalNodes>
      <leafValues>
        2.0208950340747833e-01 -9.3124502897262573e-01</leafValues></_></weakClassifiers></stage5>
</opencv_storage>
